Experiment	bias spectroscopy	
Date	04.08.2015 08:49:41	
User		
X (m)	-19.4904E-9	
Y (m)	-73.1801E-9	
Z (m)	-13.4867E-9	
Z offset (m)	-250E-12	
Settling time (s)	200E-6	
Integration time (s)	200E-6	
Z-Ctrl hold	TRUE	
Final Z (m)	N/A	
Filter type	Gaussian	
Order	6	
Cutoff frq		

[DATA]
Bias calc (V)	Input 3 (A)	Input 3 [bwd] (A)	Input 3 (A) [filt]	Input 3 (A) [bwd] [filt]
-200.000E-3	-132.523E-12	-150.893E-12	NaN	NaN
-199.609E-3	-133.405E-12	-152.871E-12	18.0667E-12	-177.901E-12
-199.218E-3	-134.998E-12	-153.137E-12	-165.176E-12	162.352E-12
-198.827E-3	-135.690E-12	-150.799E-12	39.0301E-12	523.921E-12
-198.436E-3	-133.767E-12	-149.625E-12	102.491E-12	789.813E-12
-198.045E-3	-132.043E-12	-152.510E-12	211.552E-12	1.20033E-9
-197.654E-3	-130.588E-12	-152.559E-12	688.282E-12	1.69126E-9
-197.263E-3	-130.645E-12	-148.472E-12	972.830E-12	1.93709E-9
-196.872E-3	-132.187E-12	-146.714E-12	1.14384E-9	2.37579E-9
-196.481E-3	-130.070E-12	-147.560E-12	1.30195E-9	2.66189E-9
-196.090E-3	-130.484E-12	-145.634E-12	1.48273E-9	2.49035E-9
-195.699E-3	-132.351E-12	-142.418E-12	1.41272E-9	2.16248E-9
-195.308E-3	-129.736E-12	-141.614E-12	1.39182E-9	2.36140E-9
-194.917E-3	-128.308E-12	-143.995E-12	1.16634E-9	2.41819E-9
-194.526E-3	-127.789E-12	-142.224E-12	1.14047E-9	2.18847E-9
-194.135E-3	-127.542E-12	-139.845E-12	1.28705E-9	2.02655E-9
-193.744E-3	-125.957E-12	-140.037E-12	1.01497E-9	2.33122E-9
-193.353E-3	-125.361E-12	-142.278E-12	987.856E-12	2.48008E-9
-192.962E-3	-125.058E-12	-140.730E-12	1.23044E-9	2.29313E-9
-192.571E-3	-127.213E-12	-137.613E-12	1.07553E-9	2.27952E-9
-192.180E-3	-127.506E-12	-135.216E-12	1.18501E-9	2.59725E-9
-191.789E-3	-126.253E-12	-135.602E-12	1.31668E-9	2.53215E-9
-191.398E-3	-126.008E-12	-133.356E-12	1.39665E-9	2.36331E-9
-191.007E-3	-125.371E-12	-131.036E-12	1.36444E-9	2.17511E-9
-190.616E-3	-122.966E-12	-132.175E-12	1.37022E-9	2.19279E-9
-190.225E-3	-121.802E-12	-133.148E-12	1.18881E-9	1.97865E-9
-189.834E-3	-120.227E-12	-131.940E-12	1.17064E-9	1.65919E-9
-189.443E-3	-120.123E-12	-130.359E-12	1.05358E-9	1.36119E-9
-189.052E-3	-120.815E-12	-129.508E-12	766.890E-12	1.45690E-9
-188.661E-3	-121.139E-12	-130.749E-12	858.221E-12	1.46539E-9
-188.270E-3	-121.402E-12	-130.205E-12	937.432E-12	1.43987E-9
-187.879E-3	-122.891E-12	-128.483E-12	850.621E-12	1.49540E-9
-187.488E-3	-123.126E-12	-127.614E-12	1.12620E-9	1.58964E-9
-187.097E-3	-121.678E-12	-128.129E-12	1.19644E-9	1.61365E-9
-186.706E-3	-120.988E-12	-126.999E-12	1.32912E-9	1.49426E-9
-186.315E-3	-117.949E-12	-124.960E-12	1.51082E-9	1.22930E-9
-185.924E-3	-116.254E-12	-124.287E-12	1.53662E-9	1.34240E-9
-185.533E-3	-116.284E-12	-125.719E-12	1.41765E-9	1.28451E-9
-185.142E-3	-114.604E-12	-125.371E-12	1.46842E-9	1.09571E-9
-184.751E-3	-115.535E-12	-123.564E-12	1.21445E-9	936.464E-12
-184.360E-3	-116.532E-12	-123.419E-12	1.08196E-9	1.06625E-9
-183.969E-3	-116.405E-12	-125.251E-12	1.07663E-9	1.14071E-9
-183.578E-3	-116.364E-12	-123.895E-12	766.828E-12	1.02113E-9
-183.187E-3	-116.648E-12	-122.698E-12	640.726E-12	1.00650E-9
-182.796E-3	-115.164E-12	-122.350E-12	762.861E-12	1.43039E-9
-182.405E-3	-115.534E-12	-122.787E-12	629.296E-12	1.59845E-9
-182.014E-3	-113.367E-12	-121.297E-12	860.788E-12	1.43634E-9
-181.623E-3	-111.858E-12	-119.497E-12	879.636E-12	1.51967E-9
-181.232E-3	-112.805E-12	-119.876E-12	787.703E-12	1.73982E-9
-180.841E-3	-113.583E-12	-120.431E-12	813.714E-12	1.59649E-9
-180.450E-3	-113.146E-12	-117.728E-12	819.679E-12	1.40474E-9
-180.059E-3	-113.802E-12	-116.454E-12	559.166E-12	1.33685E-9
-179.668E-3	-112.363E-12	-117.641E-12	725.437E-12	1.46439E-9
-179.277E-3	-112.759E-12	-117.184E-12	647.045E-12	1.38258E-9
-178.886E-3	-112.699E-12	-116.340E-12	431.996E-12	1.16982E-9
-178.495E-3	-111.370E-12	-116.148E-12	516.336E-12	1.29310E-9
-178.104E-3	-110.877E-12	-116.549E-12	460.281E-12	1.52097E-9
-177.713E-3	-111.975E-12	-116.051E-12	443.509E-12	1.37396E-9
-177.322E-3	-110.237E-12	-114.020E-12	600.416E-12	1.31436E-9
-176.931E-3	-109.640E-12	-113.057E-12	376.214E-12	1.54145E-9
-176.540E-3	-111.580E-12	-113.806E-12	595.731E-12	1.53543E-9
-176.149E-3	-111.716E-12	-112.811E-12	906.902E-12	1.49062E-9
-175.758E-3	-112.400E-12	-110.904E-12	871.960E-12	1.45953E-9
-175.367E-3	-111.071E-12	-110.765E-12	953.893E-12	1.50475E-9
-174.976E-3	-109.153E-12	-111.276E-12	1.15976E-9	1.53904E-9
-174.585E-3	-110.034E-12	-110.337E-12	1.17866E-9	1.42234E-9
-174.194E-3	-108.007E-12	-110.002E-12	1.09496E-9	1.43024E-9
-173.803E-3	-105.451E-12	-109.524E-12	1.18620E-9	1.56058E-9
-173.412E-3	-106.498E-12	-109.273E-12	1.19570E-9	1.64841E-9
-173.021E-3	-106.980E-12	-108.388E-12	1.36971E-9	1.53596E-9
-172.630E-3	-106.981E-12	-106.864E-12	1.20418E-9	1.60376E-9
-172.239E-3	-106.025E-12	-106.239E-12	1.01214E-9	1.65806E-9
-171.848E-3	-107.021E-12	-105.710E-12	1.31349E-9	1.50557E-9
-171.457E-3	-107.133E-12	-105.332E-12	1.38805E-9	1.47806E-9
-171.065E-3	-105.602E-12	-103.781E-12	1.20451E-9	1.35854E-9
-170.674E-3	-102.975E-12	-104.040E-12	1.37933E-9	1.33623E-9
-170.283E-3	-103.005E-12	-103.716E-12	1.54588E-9	1.29761E-9
-169.892E-3	-103.396E-12	-103.540E-12	1.47912E-9	1.10745E-9
-169.501E-3	-101.275E-12	-103.763E-12	1.34201E-9	1.15425E-9
-169.110E-3	-99.7927E-12	-102.833E-12	1.32909E-9	1.15873E-9
-168.719E-3	-101.391E-12	-102.675E-12	1.38636E-9	1.22036E-9
-168.328E-3	-101.607E-12	-101.581E-12	1.30237E-9	1.17572E-9
-167.937E-3	-100.407E-12	-100.457E-12	1.00903E-9	1.31954E-9
-167.546E-3	-100.751E-12	-100.929E-12	1.14168E-9	1.27446E-9
-167.155E-3	-100.411E-12	-99.8295E-12	1.33108E-9	1.21928E-9
-166.764E-3	-100.079E-12	-99.5766E-12	1.22171E-9	1.21568E-9
-166.373E-3	-97.9744E-12	-98.8708E-12	1.09583E-9	1.08257E-9
-165.982E-3	-96.7669E-12	-98.4560E-12	1.27252E-9	1.04993E-9
-165.591E-3	-97.7875E-12	-97.6297E-12	1.37922E-9	848.254E-12
-165.200E-3	-96.7726E-12	-98.0579E-12	1.30457E-9	757.148E-12
-164.809E-3	-95.5784E-12	-98.2212E-12	1.26051E-9	883.117E-12
-164.418E-3	-95.6617E-12	-97.7255E-12	1.36068E-9	780.846E-12
-164.027E-3	-96.5429E-12	-97.4663E-12	1.49765E-9	827.208E-12
-163.636E-3	-96.0960E-12	-96.8239E-12	1.35673E-9	908.092E-12
-163.245E-3	-94.4971E-12	-97.2691E-12	1.23679E-9	1.01308E-9
-162.854E-3	-93.7765E-12	-96.6007E-12	1.38854E-9	941.127E-12
-162.463E-3	-94.1130E-12	-95.2805E-12	1.29437E-9	977.786E-12
-162.072E-3	-92.1230E-12	-95.3741E-12	1.12175E-9	952.798E-12
-161.681E-3	-90.4175E-12	-94.8141E-12	1.03238E-9	900.990E-12
-161.290E-3	-90.8459E-12	-93.7513E-12	1.02482E-9	839.078E-12
-160.899E-3	-91.9453E-12	-93.0548E-12	987.297E-12	599.432E-12
-160.508E-3	-91.4270E-12	-93.9541E-12	936.192E-12	699.977E-12
-160.117E-3	-91.2809E-12	-94.2314E-12	821.405E-12	646.701E-12
-159.726E-3	-91.5798E-12	-94.2867E-12	947.708E-12	595.548E-12
-159.335E-3	-91.6206E-12	-93.6699E-12	1.02916E-9	670.914E-12
-158.944E-3	-90.9130E-12	-93.3147E-12	955.493E-12	818.650E-12
-158.553E-3	-89.3572E-12	-94.4017E-12	1.00251E-9	925.529E-12
-158.162E-3	-87.8149E-12	-92.5222E-12	1.15439E-9	993.622E-12
-157.771E-3	-88.6246E-12	-91.8680E-12	1.11754E-9	1.17790E-9
-157.380E-3	-87.8088E-12	-91.2550E-12	1.04359E-9	1.26716E-9
-156.989E-3	-86.0014E-12	-91.0315E-12	900.046E-12	1.36016E-9
-156.598E-3	-86.9535E-12	-89.7015E-12	907.329E-12	1.30703E-9
-156.207E-3	-87.9536E-12	-88.9568E-12	907.559E-12	1.11217E-9
-155.816E-3	-87.3205E-12	-89.1809E-12	750.614E-12	1.15009E-9
-155.425E-3	-86.7451E-12	-89.0778E-12	572.607E-12	1.00528E-9
-155.034E-3	-86.6501E-12	-88.7592E-12	761.201E-12	972.835E-12
-154.643E-3	-87.2635E-12	-87.7693E-12	787.109E-12	811.768E-12
-154.252E-3	-85.7010E-12	-87.6156E-12	633.785E-12	893.222E-12
-153.861E-3	-84.1732E-12	-88.8643E-12	764.922E-12	989.236E-12
-153.470E-3	-84.4494E-12	-88.1046E-12	980.341E-12	1.02159E-9
-153.079E-3	-85.3760E-12	-86.7788E-12	1.01645E-9	1.09089E-9
-152.688E-3	-84.3304E-12	-86.0287E-12	1.05252E-9	1.20801E-9
-152.297E-3	-83.7048E-12	-86.9390E-12	1.13905E-9	1.36488E-9
-151.906E-3	-84.3798E-12	-85.5043E-12	1.35629E-9	1.28964E-9
-151.515E-3	-84.0700E-12	-83.6130E-12	1.43701E-9	1.23647E-9
-151.124E-3	-82.4022E-12	-83.6796E-12	1.34300E-9	1.38411E-9
-150.733E-3	-81.4161E-12	-84.0591E-12	1.43714E-9	1.35913E-9
-150.342E-3	-80.8557E-12	-83.2409E-12	1.57693E-9	1.20342E-9
-149.951E-3	-80.3610E-12	-81.8018E-12	1.49449E-9	1.10256E-9
-149.560E-3	-79.1084E-12	-82.3631E-12	1.35630E-9	1.31641E-9
-149.169E-3	-77.7773E-12	-82.9092E-12	1.39238E-9	1.27674E-9
-148.778E-3	-78.8198E-12	-81.7766E-12	1.39143E-9	1.16802E-9
-148.387E-3	-78.8389E-12	-80.5771E-12	1.28672E-9	1.21421E-9
-147.996E-3	-78.1269E-12	-80.6330E-12	1.19692E-9	1.40218E-9
-147.605E-3	-77.6201E-12	-80.6683E-12	1.22449E-9	1.37073E-9
-147.214E-3	-77.8877E-12	-78.6999E-12	1.24483E-9	1.16433E-9
-146.823E-3	-76.9474E-12	-77.8749E-12	1.23763E-9	1.23386E-9
-146.432E-3	-75.5066E-12	-77.9896E-12	1.09017E-9	1.24087E-9
-146.041E-3	-74.6088E-12	-78.1689E-12	1.16288E-9	1.06452E-9
-145.650E-3	-74.7574E-12	-76.7044E-12	1.15847E-9	896.493E-12
-145.259E-3	-74.1562E-12	-76.5821E-12	1.05940E-9	834.771E-12
-144.868E-3	-73.8338E-12	-77.6348E-12	1.04395E-9	872.865E-12
-144.477E-3	-73.2233E-12	-76.8959E-12	1.04039E-9	683.447E-12
-144.086E-3	-74.1091E-12	-76.3794E-12	1.04701E-9	655.303E-12
-143.695E-3	-74.0173E-12	-76.2211E-12	1.07885E-9	804.482E-12
-143.304E-3	-73.2000E-12	-76.0941E-12	1.02040E-9	916.480E-12
-142.913E-3	-72.7070E-12	-75.9901E-12	1.10780E-9	948.692E-12
-142.522E-3	-71.6499E-12	-74.7938E-12	1.07714E-9	979.330E-12
-142.131E-3	-71.3819E-12	-74.8360E-12	1.04374E-9	1.12326E-9
-141.740E-3	-70.1664E-12	-74.5777E-12	879.441E-12	1.09579E-9
-141.349E-3	-69.0256E-12	-73.4024E-12	879.976E-12	1.04129E-9
-140.958E-3	-69.8698E-12	-72.8554E-12	781.449E-12	1.02280E-9
-140.567E-3	-69.7227E-12	-71.9446E-12	658.735E-12	960.575E-12
-140.176E-3	-69.8399E-12	-72.4705E-12	592.097E-12	987.097E-12
-139.785E-3	-69.8320E-12	-72.2155E-12	524.646E-12	890.629E-12
-139.394E-3	-70.5017E-12	-71.8420E-12	671.431E-12	839.510E-12
-139.003E-3	-70.0420E-12	-71.8582E-12	647.475E-12	854.403E-12
-138.612E-3	-69.4614E-12	-71.5219E-12	644.047E-12	851.465E-12
-138.221E-3	-68.7355E-12	-71.4481E-12	799.689E-12	907.715E-12
-137.830E-3	-68.2106E-12	-70.3022E-12	861.221E-12	838.312E-12
-137.439E-3	-67.7624E-12	-69.8669E-12	853.217E-12	970.540E-12
-137.048E-3	-66.3260E-12	-70.2251E-12	821.061E-12	1.04395E-9
-136.657E-3	-66.5638E-12	-69.4937E-12	900.400E-12	1.03667E-9
-136.266E-3	-66.8493E-12	-68.5276E-12	886.633E-12	994.565E-12
-135.875E-3	-66.8640E-12	-67.9447E-12	851.328E-12	1.00272E-9
-135.484E-3	-66.4583E-12	-68.5179E-12	822.656E-12	1.08908E-9
-135.093E-3	-66.6569E-12	-67.8680E-12	881.821E-12	987.562E-12
-134.702E-3	-66.4854E-12	-66.9977E-12	952.588E-12	933.942E-12
-134.311E-3	-65.3969E-12	-66.9077E-12	857.792E-12	1.03915E-9
-133.920E-3	-64.4468E-12	-67.2724E-12	936.939E-12	1.06233E-9
-133.529E-3	-64.0499E-12	-66.4680E-12	1.04762E-9	1.04284E-9
-133.138E-3	-63.8041E-12	-65.1678E-12	1.07400E-9	980.096E-12
-132.747E-3	-63.0928E-12	-65.2491E-12	1.03311E-9	1.12912E-9
-132.356E-3	-62.6032E-12	-65.4598E-12	1.08311E-9	1.14348E-9
-131.965E-3	-63.1548E-12	-64.4669E-12	1.11552E-9	1.04391E-9
-131.574E-3	-63.0007E-12	-63.5509E-12	1.03315E-9	1.03281E-9
-131.183E-3	-62.0907E-12	-63.2214E-12	995.697E-12	1.10666E-9
-130.792E-3	-61.6394E-12	-63.7323E-12	1.02704E-9	1.06541E-9
-130.401E-3	-61.3863E-12	-62.6274E-12	1.05262E-9	948.916E-12
-130.010E-3	-60.5970E-12	-61.9080E-12	1.00346E-9	931.607E-12
-129.619E-3	-59.7637E-12	-62.3165E-12	922.450E-12	990.855E-12
-129.228E-3	-59.6619E-12	-62.1878E-12	971.420E-12	951.161E-12
-128.837E-3	-59.4263E-12	-61.2745E-12	951.433E-12	862.712E-12
-128.446E-3	-59.0189E-12	-60.6380E-12	868.669E-12	868.639E-12
-128.055E-3	-58.7315E-12	-60.6417E-12	825.681E-12	978.569E-12
-127.664E-3	-58.7008E-12	-60.7597E-12	854.534E-12	877.593E-12
-127.273E-3	-58.9874E-12	-59.9064E-12	782.435E-12	785.585E-12
-126.882E-3	-58.3738E-12	-59.2342E-12	683.705E-12	825.375E-12
-126.491E-3	-57.7055E-12	-59.4357E-12	681.736E-12	814.993E-12
-126.100E-3	-57.2273E-12	-59.0843E-12	643.382E-12	724.640E-12
-125.709E-3	-56.9782E-12	-58.2504E-12	539.423E-12	651.563E-12
-125.318E-3	-56.2750E-12	-58.3162E-12	511.124E-12	632.704E-12
-124.927E-3	-56.4278E-12	-58.6422E-12	489.221E-12	639.029E-12
-124.536E-3	-56.8634E-12	-58.2718E-12	498.534E-12	542.055E-12
-124.145E-3	-56.7154E-12	-57.7866E-12	446.330E-12	503.918E-12
-123.754E-3	-56.6402E-12	-57.5651E-12	453.979E-12	524.551E-12
-123.363E-3	-56.9237E-12	-57.5338E-12	500.396E-12	519.848E-12
-122.972E-3	-56.3215E-12	-57.4341E-12	537.076E-12	501.474E-12
-122.581E-3	-55.9448E-12	-57.0562E-12	513.336E-12	546.746E-12
-122.190E-3	-55.5510E-12	-57.0288E-12	569.430E-12	598.058E-12
-121.799E-3	-55.2292E-12	-56.7062E-12	661.655E-12	601.168E-12
-121.408E-3	-54.6278E-12	-56.5912E-12	618.868E-12	588.505E-12
-121.017E-3	-54.1992E-12	-56.2181E-12	573.825E-12	575.571E-12
-120.626E-3	-54.2704E-12	-55.7688E-12	579.589E-12	590.817E-12
-120.235E-3	-54.5382E-12	-55.5780E-12	527.864E-12	619.333E-12
-119.844E-3	-54.4647E-12	-55.4224E-12	527.414E-12	630.541E-12
-119.453E-3	-53.8958E-12	-55.1006E-12	518.676E-12	658.832E-12
-119.062E-3	-54.0466E-12	-54.9387E-12	533.607E-12	639.509E-12
-118.671E-3	-54.0337E-12	-54.9919E-12	521.270E-12	676.181E-12
-118.280E-3	-53.6123E-12	-54.7510E-12	536.678E-12	737.706E-12
-117.889E-3	-53.1143E-12	-54.2290E-12	529.355E-12	759.082E-12
-117.498E-3	-52.5755E-12	-53.7264E-12	536.740E-12	790.154E-12
-117.107E-3	-52.3912E-12	-53.4386E-12	569.449E-12	851.612E-12
-116.716E-3	-52.1790E-12	-53.4058E-12	491.802E-12	866.490E-12
-116.325E-3	-52.1376E-12	-52.9432E-12	490.956E-12	878.513E-12
-115.934E-3	-51.9814E-12	-52.1097E-12	454.139E-12	885.223E-12
-115.543E-3	-52.3533E-12	-51.8669E-12	467.386E-12	880.356E-12
-115.152E-3	-52.3174E-12	-51.7452E-12	452.052E-12	858.301E-12
-114.761E-3	-51.4915E-12	-51.2234E-12	409.284E-12	848.416E-12
-114.370E-3	-51.5411E-12	-51.0220E-12	409.399E-12	868.898E-12
-113.978E-3	-51.3552E-12	-50.8560E-12	458.363E-12	913.617E-12
-113.587E-3	-51.3569E-12	-50.7193E-12	518.853E-12	923.284E-12
-113.196E-3	-50.5554E-12	-50.2649E-12	530.569E-12	907.477E-12
-112.805E-3	-50.3647E-12	-49.7782E-12	607.741E-12	986.974E-12
-112.414E-3	-50.5987E-12	-49.2956E-12	663.521E-12	1.01759E-9
-112.023E-3	-50.6361E-12	-48.7854E-12	680.774E-12	987.706E-12
-111.632E-3	-50.0553E-12	-48.3040E-12	709.561E-12	991.108E-12
-111.241E-3	-49.5607E-12	-47.8983E-12	725.704E-12	976.939E-12
-110.850E-3	-49.4881E-12	-47.5939E-12	823.147E-12	969.294E-12
-110.459E-3	-49.0526E-12	-46.8739E-12	780.994E-12	902.853E-12
-110.068E-3	-48.4627E-12	-46.7697E-12	742.297E-12	844.071E-12
-109.677E-3	-47.8189E-12	-46.7707E-12	815.111E-12	821.330E-12
-109.286E-3	-48.0013E-12	-46.4869E-12	832.530E-12	744.344E-12
-108.895E-3	-47.9074E-12	-46.2206E-12	828.036E-12	726.398E-12
-108.504E-3	-47.0125E-12	-45.7481E-12	785.844E-12	748.938E-12
-108.113E-3	-47.0190E-12	-45.5931E-12	861.120E-12	749.803E-12
-107.722E-3	-47.3885E-12	-45.3270E-12	938.137E-12	700.831E-12
-107.331E-3	-46.5868E-12	-44.7693E-12	956.263E-12	679.784E-12
-106.940E-3	-46.1466E-12	-44.9158E-12	933.652E-12	678.135E-12
-106.549E-3	-45.4563E-12	-44.4572E-12	988.349E-12	684.556E-12
-106.158E-3	-45.4582E-12	-43.7916E-12	1.00578E-9	619.391E-12
-105.767E-3	-44.5923E-12	-43.6041E-12	903.424E-12	574.602E-12
-105.376E-3	-43.6335E-12	-43.6169E-12	846.240E-12	574.310E-12
-104.985E-3	-43.4622E-12	-43.7826E-12	881.493E-12	544.860E-12
-104.594E-3	-43.6897E-12	-43.5743E-12	809.410E-12	495.817E-12
-104.203E-3	-43.5366E-12	-42.9405E-12	771.502E-12	522.603E-12
-103.812E-3	-43.2102E-12	-43.1417E-12	703.924E-12	551.792E-12
-103.421E-3	-43.3001E-12	-42.8549E-12	765.666E-12	527.925E-12
-103.030E-3	-43.4357E-12	-42.4398E-12	782.105E-12	559.710E-12
-102.639E-3	-42.5400E-12	-42.3174E-12	751.046E-12	615.800E-12
-102.248E-3	-41.8928E-12	-42.2245E-12	745.545E-12	641.579E-12
-101.857E-3	-41.5140E-12	-41.9697E-12	810.189E-12	669.598E-12
-101.466E-3	-41.4656E-12	-41.2272E-12	803.945E-12	609.361E-12
-101.075E-3	-40.7812E-12	-41.1591E-12	710.634E-12	674.356E-12
-100.684E-3	-40.1068E-12	-40.9609E-12	660.132E-12	698.297E-12
-100.293E-3	-40.1966E-12	-40.6164E-12	641.571E-12	624.017E-12
-99.9022E-3	-40.5977E-12	-40.6162E-12	543.867E-12	631.969E-12
-99.5112E-3	-40.1726E-12	-40.1152E-12	431.901E-12	647.708E-12
-99.1202E-3	-39.9271E-12	-40.2464E-12	396.908E-12	674.046E-12
-98.7292E-3	-40.2523E-12	-39.6597E-12	424.003E-12	587.163E-12
-98.3382E-3	-40.1644E-12	-39.0974E-12	427.355E-12	593.742E-12
-97.9472E-3	-39.6027E-12	-39.5409E-12	384.537E-12	645.338E-12
-97.5562E-3	-39.1769E-12	-39.1838E-12	433.521E-12	634.407E-12
-97.1652E-3	-39.4463E-12	-38.7587E-12	529.703E-12	674.773E-12
-96.7742E-3	-39.2170E-12	-38.1468E-12	530.644E-12	673.883E-12
-96.3832E-3	-38.7568E-12	-38.4769E-12	530.048E-12	715.668E-12
-95.9922E-3	-38.2328E-12	-38.3038E-12	569.417E-12	701.318E-12
-95.6012E-3	-38.4918E-12	-37.5000E-12	604.682E-12	660.686E-12
-95.2102E-3	-38.3554E-12	-37.3886E-12	571.755E-12	744.512E-12
-94.8192E-3	-37.8202E-12	-37.0022E-12	536.575E-12	740.775E-12
-94.4282E-3	-37.5700E-12	-36.6652E-12	543.547E-12	728.022E-12
-94.0371E-3	-37.5183E-12	-36.4510E-12	574.643E-12	710.183E-12
-93.6461E-3	-37.3913E-12	-36.1727E-12	570.026E-12	739.905E-12
-93.2551E-3	-36.8191E-12	-36.2516E-12	527.901E-12	754.435E-12
-92.8641E-3	-36.6875E-12	-35.7084E-12	632.388E-12	712.089E-12
-92.4731E-3	-36.7491E-12	-35.3266E-12	689.001E-12	707.260E-12
-92.0821E-3	-36.8195E-12	-35.0401E-12	709.737E-12	711.248E-12
-91.6911E-3	-36.0497E-12	-34.7160E-12	765.298E-12	691.092E-12
-91.3001E-3	-35.6680E-12	-34.6741E-12	820.632E-12	707.134E-12
-90.9091E-3	-35.7592E-12	-34.1866E-12	891.235E-12	682.233E-12
-90.5181E-3	-34.9270E-12	-33.8896E-12	881.183E-12	683.026E-12
-90.1271E-3	-34.3809E-12	-33.8673E-12	867.613E-12	663.057E-12
-89.7361E-3	-34.0397E-12	-33.4238E-12	874.969E-12	644.302E-12
-89.3451E-3	-33.6880E-12	-33.3235E-12	897.666E-12	626.921E-12
-88.9541E-3	-33.4837E-12	-32.8882E-12	804.422E-12	601.195E-12
-88.5631E-3	-32.9346E-12	-32.8365E-12	743.534E-12	621.614E-12
-88.1720E-3	-32.8398E-12	-32.7023E-12	726.080E-12	595.337E-12
-87.7810E-3	-32.9863E-12	-32.2079E-12	681.282E-12	555.874E-12
-87.3900E-3	-32.7267E-12	-31.9897E-12	648.409E-12	553.182E-12
-86.9990E-3	-32.0953E-12	-31.8640E-12	631.732E-12	543.418E-12
-86.6080E-3	-31.9971E-12	-31.7718E-12	611.357E-12	522.238E-12
-86.2170E-3	-31.9185E-12	-31.3885E-12	652.087E-12	468.068E-12
-85.8260E-3	-31.7118E-12	-31.1556E-12	579.455E-12	441.799E-12
-85.4350E-3	-31.0612E-12	-31.2626E-12	557.964E-12	470.214E-12
-85.0440E-3	-30.8495E-12	-31.0923E-12	544.484E-12	428.382E-12
-84.6530E-3	-30.7415E-12	-30.6158E-12	532.443E-12	406.671E-12
-84.2620E-3	-30.6683E-12	-30.6452E-12	470.611E-12	406.117E-12
-83.8710E-3	-30.0621E-12	-30.6694E-12	439.622E-12	438.402E-12
-83.4800E-3	-30.4363E-12	-30.6765E-12	414.576E-12	419.129E-12
-83.0890E-3	-30.4619E-12	-29.9812E-12	428.551E-12	390.737E-12
-82.6980E-3	-30.3869E-12	-29.9185E-12	389.044E-12	419.901E-12
-82.3069E-3	-29.8267E-12	-29.9372E-12	376.957E-12	430.310E-12
-81.9159E-3	-29.6415E-12	-29.7794E-12	378.089E-12	382.896E-12
-81.5249E-3	-29.6719E-12	-29.3175E-12	388.663E-12	396.758E-12
-81.1339E-3	-29.6030E-12	-29.2620E-12	336.001E-12	406.892E-12
-80.7429E-3	-29.0529E-12	-29.4353E-12	378.413E-12	418.839E-12
-80.3519E-3	-28.9326E-12	-29.1603E-12	386.047E-12	364.498E-12
-79.9609E-3	-29.0169E-12	-28.8176E-12	385.566E-12	354.632E-12
-79.5699E-3	-28.9795E-12	-28.8921E-12	342.560E-12	369.922E-12
-79.1789E-3	-28.7947E-12	-28.7079E-12	357.057E-12	375.342E-12
-78.7879E-3	-28.8198E-12	-28.5006E-12	368.618E-12	326.292E-12
-78.3969E-3	-28.6039E-12	-28.2427E-12	375.123E-12	309.043E-12
-78.0059E-3	-28.3356E-12	-28.1769E-12	327.877E-12	343.017E-12
-77.6149E-3	-28.0878E-12	-28.2518E-12	321.609E-12	328.302E-12
-77.2239E-3	-27.9869E-12	-28.0289E-12	327.470E-12	285.102E-12
-76.8328E-3	-27.7224E-12	-27.7565E-12	321.579E-12	329.879E-12
-76.4418E-3	-27.7161E-12	-27.8639E-12	288.460E-12	323.316E-12
-76.0508E-3	-27.6154E-12	-27.9354E-12	320.599E-12	325.546E-12
-75.6598E-3	-27.6808E-12	-27.5433E-12	279.406E-12	351.168E-12
-75.2688E-3	-27.6524E-12	-27.3262E-12	288.300E-12	336.643E-12
-74.8778E-3	-27.5482E-12	-27.4416E-12	288.243E-12	370.744E-12
-74.4868E-3	-27.3640E-12	-26.9735E-12	305.947E-12	371.867E-12
-74.0958E-3	-27.3308E-12	-26.9169E-12	281.860E-12	393.509E-12
-73.7048E-3	-26.8009E-12	-26.7817E-12	319.272E-12	438.536E-12
-73.3138E-3	-26.9762E-12	-26.4183E-12	336.076E-12	467.470E-12
-72.9228E-3	-26.6113E-12	-26.6975E-12	368.428E-12	454.889E-12
-72.5318E-3	-26.5219E-12	-26.4132E-12	376.022E-12	426.423E-12
-72.1408E-3	-26.4130E-12	-26.2083E-12	379.242E-12	459.524E-12
-71.7498E-3	-26.5945E-12	-25.7879E-12	394.318E-12	429.935E-12
-71.3587E-3	-26.2505E-12	-25.5106E-12	410.884E-12	441.370E-12
-70.9677E-3	-26.0384E-12	-25.3410E-12	394.917E-12	412.673E-12
-70.5767E-3	-25.7759E-12	-25.2203E-12	435.155E-12	371.542E-12
-70.1857E-3	-25.6712E-12	-25.4353E-12	425.464E-12	400.214E-12
-69.7947E-3	-25.5260E-12	-25.1314E-12	427.728E-12	362.748E-12
-69.4037E-3	-25.2165E-12	-24.9748E-12	415.067E-12	338.940E-12
-69.0127E-3	-25.0824E-12	-24.7440E-12	423.647E-12	282.031E-12
-68.6217E-3	-24.9033E-12	-24.8169E-12	394.075E-12	317.494E-12
-68.2307E-3	-24.7625E-12	-24.7511E-12	372.112E-12	314.552E-12
-67.8397E-3	-24.6202E-12	-24.4558E-12	359.461E-12	311.792E-12
-67.4487E-3	-24.5712E-12	-24.3723E-12	326.680E-12	326.515E-12
-67.0577E-3	-24.5577E-12	-24.2729E-12	310.609E-12	307.980E-12
-66.6667E-3	-24.4339E-12	-24.3986E-12	302.977E-12	292.832E-12
-66.2757E-3	-24.2008E-12	-23.7238E-12	305.637E-12	267.919E-12
-65.8847E-3	-24.0704E-12	-23.7402E-12	282.796E-12	258.986E-12
-65.4937E-3	-23.8413E-12	-23.7638E-12	282.730E-12	250.484E-12
-65.1026E-3	-24.0076E-12	-23.7902E-12	267.098E-12	226.970E-12
-64.7116E-3	-23.8924E-12	-23.6317E-12	245.761E-12	191.899E-12
-64.3206E-3	-23.5949E-12	-23.5935E-12	230.480E-12	185.063E-12
-63.9296E-3	-23.4411E-12	-23.5657E-12	242.911E-12	200.265E-12
-63.5386E-3	-23.5352E-12	-23.5727E-12	224.359E-12	141.800E-12
-63.1476E-3	-23.3774E-12	-23.3795E-12	203.356E-12	153.181E-12
-62.7566E-3	-23.3860E-12	-23.2084E-12	184.724E-12	167.716E-12
-62.3656E-3	-23.4737E-12	-23.4062E-12	196.027E-12	185.385E-12
-61.9746E-3	-23.4322E-12	-23.2407E-12	191.169E-12	183.015E-12
-61.5836E-3	-22.9912E-12	-23.0703E-12	169.589E-12	179.905E-12
-61.1926E-3	-22.9227E-12	-23.0837E-12	155.218E-12	195.178E-12
-60.8016E-3	-23.0122E-12	-23.0404E-12	175.626E-12	191.364E-12
-60.4106E-3	-22.9841E-12	-22.9298E-12	175.997E-12	164.509E-12
-60.0196E-3	-22.9647E-12	-22.7734E-12	160.986E-12	175.107E-12
-59.6285E-3	-22.8279E-12	-22.6931E-12	173.736E-12	204.685E-12
-59.2375E-3	-22.7703E-12	-22.7356E-12	185.499E-12	189.717E-12
-58.8465E-3	-22.7964E-12	-22.5527E-12	149.083E-12	181.492E-12
-58.4555E-3	-22.6263E-12	-22.6042E-12	147.372E-12	195.772E-12
-58.0645E-3	-22.4609E-12	-22.6786E-12	167.936E-12	223.061E-12
-57.6735E-3	-22.6271E-12	-22.3698E-12	165.940E-12	225.190E-12
-57.2825E-3	-22.4812E-12	-22.2235E-12	182.478E-12	229.346E-12
-56.8915E-3	-22.2519E-12	-22.2229E-12	152.479E-12	230.078E-12
-56.5005E-3	-22.2937E-12	-22.1689E-12	179.011E-12	252.626E-12
-56.1095E-3	-22.3259E-12	-22.0465E-12	183.432E-12	246.211E-12
-55.7185E-3	-22.1992E-12	-21.7525E-12	188.771E-12	262.896E-12
-55.3275E-3	-22.1777E-12	-21.7352E-12	185.408E-12	288.685E-12
-54.9365E-3	-21.9477E-12	-21.6593E-12	230.785E-12	274.231E-12
-54.5455E-3	-22.1416E-12	-21.6768E-12	225.722E-12	279.049E-12
-54.1544E-3	-21.7653E-12	-21.5023E-12	218.932E-12	283.242E-12
-53.7634E-3	-21.7709E-12	-21.4249E-12	246.301E-12	290.111E-12
-53.3724E-3	-21.5942E-12	-21.2812E-12	259.534E-12	283.839E-12
-52.9814E-3	-21.5809E-12	-21.0270E-12	248.068E-12	304.684E-12
-52.5904E-3	-21.3205E-12	-20.9187E-12	266.319E-12	311.938E-12
-52.1994E-3	-21.3369E-12	-20.8063E-12	229.381E-12	311.226E-12
-51.8084E-3	-21.2959E-12	-20.8193E-12	266.010E-12	311.718E-12
-51.4174E-3	-21.1088E-12	-20.6961E-12	251.789E-12	290.637E-12
-51.0264E-3	-21.0272E-12	-20.6381E-12	271.094E-12	279.479E-12
-50.6354E-3	-21.0270E-12	-20.1675E-12	255.723E-12	253.067E-12
-50.2444E-3	-20.7705E-12	-20.1834E-12	247.869E-12	214.671E-12
-49.8534E-3	-20.9431E-12	-20.1593E-12	243.791E-12	193.263E-12
-49.4624E-3	-20.6238E-12	-20.1365E-12	249.418E-12	174.991E-12
-49.0714E-3	-20.4102E-12	-20.1168E-12	231.645E-12	196.543E-12
-48.6804E-3	-20.2635E-12	-20.0417E-12	209.066E-12	156.717E-12
-48.2893E-3	-20.3354E-12	-20.0407E-12	221.755E-12	157.031E-12
-47.8983E-3	-20.4155E-12	-20.0508E-12	200.274E-12	129.142E-12
-47.5073E-3	-20.1912E-12	-19.9942E-12	187.600E-12	123.663E-12
-47.1163E-3	-20.1307E-12	-19.8975E-12	203.664E-12	124.157E-12
-46.7253E-3	-20.2013E-12	-19.5232E-12	196.682E-12	119.829E-12
-46.3343E-3	-20.1359E-12	-19.7788E-12	169.544E-12	126.028E-12
-45.9433E-3	-19.8048E-12	-19.6346E-12	188.104E-12	147.668E-12
-45.5523E-3	-19.9572E-12	-19.5404E-12	214.274E-12	158.392E-12
-45.1613E-3	-19.7645E-12	-19.6989E-12	229.130E-12	157.739E-12
-44.7703E-3	-19.6939E-12	-19.6630E-12	198.821E-12	170.731E-12
-44.3793E-3	-19.4666E-12	-19.6369E-12	208.359E-12	166.661E-12
-43.9883E-3	-19.6558E-12	-19.4714E-12	215.844E-12	131.841E-12
-43.5973E-3	-19.3888E-12	-19.1372E-12	216.652E-12	164.024E-12
-43.2063E-3	-19.2642E-12	-19.0788E-12	162.747E-12	143.741E-12
-42.8152E-3	-19.2186E-12	-19.1566E-12	194.525E-12	140.919E-12
-42.4242E-3	-19.3466E-12	-19.0147E-12	185.570E-12	157.448E-12
-42.0332E-3	-19.1496E-12	-19.0552E-12	192.681E-12	145.619E-12
-41.6422E-3	-19.0792E-12	-19.1790E-12	167.204E-12	121.685E-12
-41.2512E-3	-18.9318E-12	-19.0643E-12	174.225E-12	122.749E-12
-40.8602E-3	-19.1683E-12	-19.0775E-12	153.739E-12	92.8429E-12
-40.4692E-3	-18.8562E-12	-18.9217E-12	160.792E-12	106.947E-12
-40.0782E-3	-18.7260E-12	-18.7763E-12	156.043E-12	111.445E-12
-39.6872E-3	-18.5919E-12	-18.7609E-12	168.464E-12	113.804E-12
-39.2962E-3	-18.7094E-12	-18.8900E-12	154.385E-12	126.356E-12
-38.9052E-3	-18.7799E-12	-18.6432E-12	157.053E-12	132.885E-12
-38.5142E-3	-18.6825E-12	-18.7134E-12	139.860E-12	128.267E-12
-38.1232E-3	-18.4685E-12	-18.5884E-12	164.073E-12	146.684E-12
-37.7322E-3	-18.4822E-12	-18.6712E-12	142.076E-12	148.545E-12
-37.3412E-3	-18.4105E-12	-18.5297E-12	129.563E-12	143.882E-12
-36.9501E-3	-18.3308E-12	-18.4557E-12	124.346E-12	163.898E-12
-36.5591E-3	-18.2289E-12	-18.4742E-12	129.953E-12	194.101E-12
-36.1681E-3	-18.2970E-12	-18.3695E-12	123.682E-12	181.468E-12
-35.7771E-3	-18.2072E-12	-18.1711E-12	132.324E-12	216.250E-12
-35.3861E-3	-18.1274E-12	-18.0664E-12	119.127E-12	194.195E-12
-34.9951E-3	-18.1618E-12	-18.0944E-12	123.601E-12	204.100E-12
-34.6041E-3	-18.1002E-12	-17.9649E-12	130.437E-12	187.555E-12
-34.2131E-3	-18.1131E-12	-17.8360E-12	130.633E-12	188.742E-12
-33.8221E-3	-18.1318E-12	-17.8314E-12	153.950E-12	214.302E-12
-33.4311E-3	-17.8333E-12	-17.5924E-12	149.012E-12	201.699E-12
-33.0401E-3	-17.7856E-12	-17.7801E-12	138.459E-12	199.784E-12
-32.6491E-3	-17.7887E-12	-17.7027E-12	147.973E-12	177.618E-12
-32.2581E-3	-17.6893E-12	-17.6668E-12	143.039E-12	196.626E-12
-31.8671E-3	-17.6828E-12	-17.4948E-12	126.687E-12	174.785E-12
-31.4761E-3	-17.4252E-12	-17.1751E-12	128.541E-12	164.608E-12
-31.0850E-3	-17.6399E-12	-17.2224E-12	143.193E-12	164.878E-12
-30.6940E-3	-17.6613E-12	-17.0929E-12	140.296E-12	153.995E-12
-30.3030E-3	-17.4488E-12	-17.2966E-12	157.175E-12	120.666E-12
-29.9120E-3	-17.4953E-12	-17.0967E-12	169.284E-12	139.775E-12
-29.5210E-3	-17.5184E-12	-17.1930E-12	186.580E-12	128.209E-12
-29.1300E-3	-17.3866E-12	-17.1175E-12	190.858E-12	137.533E-12
-28.7390E-3	-17.1518E-12	-17.0210E-12	193.875E-12	105.709E-12
-28.3480E-3	-16.9432E-12	-16.8524E-12	224.494E-12	121.978E-12
-27.9570E-3	-16.8676E-12	-17.2859E-12	218.502E-12	108.381E-12
-27.5660E-3	-16.9014E-12	-16.7879E-12	206.694E-12	134.005E-12
-27.1750E-3	-16.7702E-12	-16.7999E-12	210.931E-12	138.294E-12
-26.7840E-3	-16.8520E-12	-16.5251E-12	192.303E-12	153.291E-12
-26.3930E-3	-16.6738E-12	-16.7011E-12	164.247E-12	128.372E-12
-26.0020E-3	-16.5928E-12	-16.6687E-12	135.310E-12	119.782E-12
-25.6109E-3	-16.6243E-12	-16.7645E-12	125.348E-12	106.085E-12
-25.2199E-3	-16.4671E-12	-16.6519E-12	110.586E-12	135.509E-12
-24.8289E-3	-16.3851E-12	-16.3973E-12	126.039E-12	97.7509E-12
-24.4379E-3	-16.4856E-12	-16.3424E-12	122.105E-12	105.169E-12
-24.0469E-3	-16.5028E-12	-16.5245E-12	140.095E-12	71.7603E-12
-23.6559E-3	-16.4606E-12	-16.4614E-12	114.671E-12	85.3569E-12
-23.2649E-3	-16.2971E-12	-16.4137E-12	127.158E-12	84.9682E-12
-22.8739E-3	-16.3544E-12	-16.3885E-12	132.978E-12	90.7892E-12
-22.4829E-3	-16.1604E-12	-16.2540E-12	128.271E-12	104.298E-12
-22.0919E-3	-16.0795E-12	-16.1987E-12	120.836E-12	66.0591E-12
-21.7009E-3	-15.9822E-12	-16.3431E-12	130.100E-12	73.0193E-12
-21.3099E-3	-16.1348E-12	-16.3322E-12	110.153E-12	105.293E-12
-20.9189E-3	-15.9569E-12	-16.2359E-12	99.8849E-12	108.427E-12
-20.5279E-3	-15.9683E-12	-16.1880E-12	79.2139E-12	100.291E-12
-20.1369E-3	-15.8997E-12	-15.9004E-12	68.5788E-12	113.812E-12
-19.7458E-3	-15.9292E-12	-16.1551E-12	37.0659E-12	87.7487E-12
-19.3548E-3	-15.8806E-12	-16.0734E-12	55.1612E-12	88.0250E-12
-18.9638E-3	-16.0072E-12	-15.9174E-12	64.7393E-12	98.3891E-12
-18.5728E-3	-15.9180E-12	-15.8585E-12	75.3731E-12	102.445E-12
-18.1818E-3	-15.8684E-12	-15.9416E-12	58.5420E-12	100.686E-12
-17.7908E-3	-15.9243E-12	-15.7846E-12	73.3575E-12	100.428E-12
-17.3998E-3	-15.9746E-12	-15.9716E-12	87.0858E-12	71.0372E-12
-17.0088E-3	-15.6475E-12	-15.8882E-12	73.8695E-12	97.8335E-12
-16.6178E-3	-15.5283E-12	-15.8424E-12	75.9980E-12	88.3757E-12
-16.2268E-3	-15.6487E-12	-15.6973E-12	94.6927E-12	97.1139E-12
-15.8358E-3	-15.7320E-12	-15.5912E-12	84.9870E-12	82.5139E-12
-15.4448E-3	-15.6397E-12	-15.5647E-12	72.8743E-12	100.418E-12
-15.0538E-3	-15.4987E-12	-15.6792E-12	80.6605E-12	81.6600E-12
-14.6628E-3	-15.7234E-12	-15.6349E-12	89.0299E-12	117.297E-12
-14.2718E-3	-15.6157E-12	-15.6324E-12	76.9810E-12	124.485E-12
-13.8807E-3	-15.4722E-12	-15.3969E-12	68.1769E-12	95.3032E-12
-13.4897E-3	-15.4488E-12	-15.5539E-12	99.5262E-12	81.6453E-12
-13.0987E-3	-15.4999E-12	-15.4190E-12	110.132E-12	78.5041E-12
-12.7077E-3	-15.4161E-12	-15.4724E-12	107.320E-12	91.9340E-12
-12.3167E-3	-15.3324E-12	-15.2267E-12	117.344E-12	100.575E-12
-11.9257E-3	-15.2061E-12	-15.0909E-12	133.031E-12	90.7129E-12
-11.5347E-3	-15.3179E-12	-15.4079E-12	116.200E-12	104.757E-12
-11.1437E-3	-15.1644E-12	-15.3915E-12	95.6913E-12	97.6701E-12
-10.7527E-3	-15.1728E-12	-15.3065E-12	120.804E-12	115.622E-12
-10.3617E-3	-15.1360E-12	-15.1278E-12	125.422E-12	110.151E-12
-9.97067E-3	-14.9431E-12	-15.1266E-12	137.429E-12	137.486E-12
-9.57967E-3	-15.0164E-12	-15.1468E-12	131.497E-12	127.966E-12
-9.18866E-3	-15.0639E-12	-14.9528E-12	125.995E-12	128.947E-12
-8.79765E-3	-15.1068E-12	-14.8664E-12	139.126E-12	153.494E-12
-8.40665E-3	-14.7688E-12	-14.8918E-12	150.823E-12	152.221E-12
-8.01564E-3	-14.7751E-12	-14.8788E-12	139.149E-12	138.417E-12
-7.62463E-3	-14.5823E-12	-14.6879E-12	140.412E-12	121.047E-12
-7.23363E-3	-14.6421E-12	-14.6698E-12	129.034E-12	109.513E-12
-6.84262E-3	-14.6519E-12	-14.6540E-12	136.625E-12	119.907E-12
-6.45161E-3	-14.6383E-12	-14.7013E-12	126.706E-12	97.8207E-12
-6.06061E-3	-14.3854E-12	-14.6137E-12	129.941E-12	95.5274E-12
-5.66960E-3	-14.5615E-12	-14.5969E-12	107.401E-12	89.1850E-12
-5.27859E-3	-14.4701E-12	-14.5472E-12	93.5544E-12	94.9728E-12
-4.88759E-3	-14.3879E-12	-14.5981E-12	68.1824E-12	77.4414E-12
-4.49658E-3	-14.3394E-12	-14.4026E-12	72.8757E-12	74.9965E-12
-4.10557E-3	-14.4072E-12	-14.4251E-12	65.6137E-12	73.9188E-12
-3.71456E-3	-14.2832E-12	-14.3625E-12	71.9189E-12	83.7248E-12
-3.32356E-3	-14.1684E-12	-14.4466E-12	42.4339E-12	84.8595E-12
-2.93255E-3	-14.3278E-12	-14.3307E-12	66.0100E-12	75.2559E-12
-2.54154E-3	-14.3854E-12	-14.3463E-12	45.0619E-12	75.0075E-12
-2.15054E-3	-14.3219E-12	-14.3574E-12	60.3515E-12	50.0631E-12
-1.75953E-3	-14.3154E-12	-14.3280E-12	52.7647E-12	43.1004E-12
-1.36852E-3	-14.1401E-12	-14.2221E-12	55.4637E-12	38.8926E-12
-977.517E-6	-14.2113E-12	-14.1140E-12	80.3096E-12	47.7560E-12
-586.510E-6	-14.0987E-12	-14.2134E-12	71.5314E-12	48.1168E-12
-195.503E-6	-14.2300E-12	-14.1582E-12	75.5130E-12	44.5773E-12
195.503E-6	-13.9919E-12	-14.4352E-12	82.6137E-12	41.4551E-12
586.510E-6	-14.1014E-12	-14.2353E-12	85.5067E-12	59.7712E-12
977.517E-6	-14.1548E-12	-14.2559E-12	78.3326E-12	51.1298E-12
1.36852E-3	-13.7974E-12	-14.0568E-12	50.9417E-12	54.2663E-12
1.75953E-3	-13.9130E-12	-14.1212E-12	68.0633E-12	35.2192E-12
2.15054E-3	-14.0606E-12	-14.0450E-12	68.4467E-12	55.0597E-12
2.54154E-3	-13.9797E-12	-14.1193E-12	53.2972E-12	33.9068E-12
2.93255E-3	-13.8409E-12	-13.9498E-12	46.3101E-12	57.9333E-12
3.32356E-3	-13.8880E-12	-14.0705E-12	55.0572E-12	43.8890E-12
3.71456E-3	-13.9894E-12	-13.9790E-12	79.8831E-12	20.7501E-12
4.10557E-3	-13.8149E-12	-14.1411E-12	40.5495E-12	16.3390E-12
4.49658E-3	-13.7001E-12	-14.0013E-12	54.7439E-12	2.28541E-12
4.88759E-3	-13.9719E-12	-14.1441E-12	69.1384E-12	-10.9812E-12
5.27859E-3	-13.7714E-12	-14.0133E-12	57.8728E-12	15.7389E-12
5.66960E-3	-13.7779E-12	-13.8893E-12	41.9664E-12	1.90346E-12
6.06061E-3	-13.5452E-12	-14.1186E-12	70.7978E-12	16.3928E-12
6.45161E-3	-13.7259E-12	-13.9370E-12	71.6214E-12	26.9741E-12
6.84262E-3	-13.7310E-12	-14.1537E-12	67.1607E-12	40.0407E-12
7.23363E-3	-13.6936E-12	-14.1729E-12	53.8692E-12	21.6078E-12
7.62463E-3	-13.7024E-12	-13.9080E-12	98.3995E-12	52.7994E-12
8.01564E-3	-13.7190E-12	-13.9444E-12	76.3679E-12	47.6510E-12
8.40665E-3	-13.4329E-12	-13.9423E-12	61.7504E-12	27.9298E-12
8.79765E-3	-13.5319E-12	-13.8006E-12	40.0719E-12	71.7240E-12
9.18866E-3	-13.4300E-12	-13.8866E-12	51.0664E-12	58.3457E-12
9.57967E-3	-13.5351E-12	-14.0013E-12	59.4897E-12	37.2167E-12
9.97067E-3	-13.3162E-12	-13.8082E-12	20.7805E-12	64.8287E-12
10.3617E-3	-13.4121E-12	-13.7922E-12	14.2407E-12	39.5361E-12
10.7527E-3	-13.5862E-12	-13.9494E-12	8.46254E-12	41.6386E-12
11.1437E-3	-13.5693E-12	-13.6736E-12	-24.8428E-12	49.5095E-12
11.5347E-3	-13.5414E-12	-13.6848E-12	-29.0001E-12	19.9530E-12
11.9257E-3	-13.3421E-12	-14.0856E-12	-27.9604E-12	28.2738E-12
12.3167E-3	-13.6372E-12	-13.6560E-12	-35.0830E-12	37.0762E-12
12.7077E-3	-13.5603E-12	-13.6873E-12	-44.9673E-12	37.1006E-12
13.0987E-3	-13.5136E-12	-13.7215E-12	-13.4547E-12	7.20624E-12
13.4897E-3	-13.5626E-12	-13.6425E-12	18.0494E-12	17.8343E-12
13.8807E-3	-13.6711E-12	-13.8569E-12	33.4427E-12	-7.96927E-12
14.2718E-3	-13.5338E-12	-13.8054E-12	22.3079E-12	-10.0431E-12
14.6628E-3	-13.7051E-12	-13.7417E-12	-2.88341E-12	41.8654E-12
15.0538E-3	-13.6013E-12	-13.5342E-12	33.5999E-12	-6.23041E-12
15.4448E-3	-13.4058E-12	-13.8704E-12	22.7600E-12	-5.83696E-12
15.8358E-3	-13.3127E-12	-13.8123E-12	19.8201E-12	-11.3575E-12
16.2268E-3	-13.2509E-12	-13.7846E-12	5.76344E-12	1.88219E-12
16.6178E-3	-13.4886E-12	-13.8050E-12	24.7131E-12	29.1445E-12
17.0088E-3	-13.6696E-12	-13.5477E-12	3.39959E-12	31.8543E-12
17.3998E-3	-13.5397E-12	-13.6980E-12	19.0404E-12	17.6513E-12
17.7908E-3	-13.5395E-12	-13.7760E-12	3.18446E-12	18.3129E-12
18.1818E-3	-13.4748E-12	-13.8752E-12	-27.1873E-12	32.7974E-12
18.5728E-3	-13.6009E-12	-13.6566E-12	-7.15065E-12	35.9164E-12
18.9638E-3	-13.3791E-12	-13.5885E-12	-7.60148E-12	20.3894E-12
19.3548E-3	-13.4449E-12	-13.5448E-12	24.8204E-12	24.1850E-12
19.7458E-3	-13.4033E-12	-13.6965E-12	51.4919E-12	-3.15523E-12
20.1369E-3	-13.4775E-12	-13.5633E-12	51.7496E-12	23.2673E-12
20.5279E-3	-13.6570E-12	-13.7547E-12	57.8881E-12	22.8832E-12
20.9189E-3	-13.3966E-12	-13.6093E-12	42.6572E-12	17.0736E-12
21.3099E-3	-13.4529E-12	-13.7234E-12	58.8800E-12	5.81804E-12
21.7009E-3	-13.3677E-12	-13.6383E-12	54.1717E-12	7.64006E-12
22.0919E-3	-13.2488E-12	-13.6831E-12	64.2588E-12	11.3271E-12
22.4829E-3	-13.1723E-12	-13.5263E-12	66.5852E-12	23.8239E-12
22.8739E-3	-13.2004E-12	-13.5933E-12	50.0147E-12	13.4644E-12
23.2649E-3	-13.3848E-12	-13.6965E-12	72.5293E-12	49.5949E-12
23.6559E-3	-13.3261E-12	-13.5838E-12	34.5833E-12	11.6200E-12
24.0469E-3	-13.1868E-12	-13.5506E-12	53.7772E-12	26.0002E-12
24.4379E-3	-13.1767E-12	-13.5422E-12	32.5979E-12	45.8296E-12
24.8289E-3	-13.1222E-12	-13.5862E-12	45.2327E-12	63.6676E-12
25.2199E-3	-13.3404E-12	-13.5902E-12	23.4199E-12	59.3915E-12
25.6109E-3	-13.1317E-12	-13.3816E-12	26.8709E-12	61.1705E-12
26.0020E-3	-13.2330E-12	-13.6837E-12	51.4682E-12	94.0940E-12
26.3930E-3	-13.0302E-12	-13.5796E-12	31.8355E-12	106.520E-12
26.7840E-3	-13.1834E-12	-13.2740E-12	18.0830E-12	105.785E-12
27.1750E-3	-12.9526E-12	-13.2055E-12	37.1546E-12	114.784E-12
27.5660E-3	-13.1962E-12	-13.2334E-12	25.5464E-12	112.547E-12
27.9570E-3	-13.1855E-12	-13.3860E-12	47.7177E-12	114.735E-12
28.3480E-3	-13.0447E-12	-13.1626E-12	22.1266E-12	93.0631E-12
28.7390E-3	-13.1573E-12	-13.0125E-12	30.0596E-12	122.344E-12
29.1300E-3	-13.1302E-12	-13.1035E-12	43.8758E-12	121.158E-12
29.5210E-3	-12.9065E-12	-13.0558E-12	55.0721E-12	79.1804E-12
29.9120E-3	-13.0302E-12	-13.1277E-12	44.9647E-12	71.0101E-12
30.3030E-3	-12.9826E-12	-13.0461E-12	73.0516E-12	87.9577E-12
30.6940E-3	-13.0686E-12	-13.0400E-12	74.6929E-12	102.408E-12
31.0850E-3	-13.0650E-12	-12.9099E-12	68.0007E-12	80.0367E-12
31.4761E-3	-12.7539E-12	-12.7420E-12	81.7015E-12	75.9864E-12
31.8671E-3	-12.8670E-12	-12.9263E-12	76.5860E-12	86.9287E-12
32.2581E-3	-12.8342E-12	-12.9536E-12	52.5369E-12	86.3713E-12
32.6491E-3	-12.8082E-12	-12.7804E-12	63.1095E-12	65.1909E-12
33.0401E-3	-12.7884E-12	-12.7438E-12	77.2659E-12	58.1880E-12
33.4311E-3	-12.7550E-12	-12.7670E-12	76.8968E-12	46.9593E-12
33.8221E-3	-12.7241E-12	-12.6968E-12	88.3059E-12	54.3403E-12
34.2131E-3	-12.7388E-12	-12.6827E-12	61.6898E-12	32.6005E-12
34.6041E-3	-12.7859E-12	-12.6392E-12	66.5031E-12	45.1586E-12
34.9951E-3	-12.7489E-12	-12.8891E-12	58.7702E-12	51.8205E-12
35.3861E-3	-12.5088E-12	-12.7653E-12	85.8935E-12	35.5870E-12
35.7771E-3	-12.5891E-12	-12.7790E-12	90.6390E-12	53.7376E-12
36.1681E-3	-12.4399E-12	-12.5078E-12	86.2096E-12	36.3720E-12
36.5591E-3	-12.5074E-12	-12.6242E-12	79.9760E-12	44.3559E-12
36.9501E-3	-12.6112E-12	-12.6522E-12	78.4321E-12	57.6400E-12
37.3412E-3	-12.6432E-12	-12.5677E-12	89.4545E-12	70.1942E-12
37.7322E-3	-12.3005E-12	-12.5975E-12	87.8616E-12	79.1077E-12
38.1232E-3	-12.2801E-12	-12.4182E-12	71.4946E-12	69.9768E-12
38.5142E-3	-12.3379E-12	-12.6911E-12	83.8657E-12	99.1765E-12
38.9052E-3	-12.3867E-12	-12.5298E-12	88.6484E-12	64.4185E-12
39.2962E-3	-12.3898E-12	-12.4002E-12	92.5197E-12	107.112E-12
39.6872E-3	-12.2620E-12	-12.2833E-12	120.109E-12	118.333E-12
40.0782E-3	-12.2135E-12	-12.4426E-12	119.478E-12	129.862E-12
40.4692E-3	-12.1851E-12	-12.3894E-12	84.1772E-12	122.186E-12
40.8602E-3	-12.1517E-12	-12.0949E-12	87.8154E-12	121.239E-12
41.2512E-3	-12.0003E-12	-12.3226E-12	100.787E-12	154.547E-12
41.6422E-3	-12.0798E-12	-12.0304E-12	115.182E-12	141.489E-12
42.0332E-3	-11.8822E-12	-12.0226E-12	123.531E-12	116.855E-12
42.4242E-3	-11.9350E-12	-11.9032E-12	126.269E-12	122.977E-12
42.8152E-3	-12.0296E-12	-12.0853E-12	117.050E-12	133.941E-12
43.2063E-3	-11.9904E-12	-11.9450E-12	120.592E-12	104.040E-12
43.5973E-3	-11.8814E-12	-11.8259E-12	111.352E-12	95.2960E-12
43.9883E-3	-11.7321E-12	-11.7895E-12	112.907E-12	140.439E-12
44.3793E-3	-11.6247E-12	-11.9167E-12	121.396E-12	121.814E-12
44.7703E-3	-11.5086E-12	-11.7027E-12	112.137E-12	145.586E-12
45.1613E-3	-11.6333E-12	-11.6982E-12	114.830E-12	140.662E-12
45.5523E-3	-11.5986E-12	-11.8835E-12	124.479E-12	177.618E-12
45.9433E-3	-11.6743E-12	-11.6238E-12	106.257E-12	185.170E-12
46.3343E-3	-11.5030E-12	-11.3380E-12	93.4891E-12	188.169E-12
46.7253E-3	-11.4754E-12	-11.3474E-12	88.4430E-12	215.822E-12
47.1163E-3	-11.3770E-12	-11.2061E-12	70.6497E-12	221.237E-12
47.5073E-3	-11.3867E-12	-11.2982E-12	101.775E-12	209.755E-12
47.8983E-3	-11.3102E-12	-11.1488E-12	107.183E-12	215.110E-12
48.2893E-3	-11.4014E-12	-11.0176E-12	132.455E-12	213.238E-12
48.6804E-3	-11.3611E-12	-10.9772E-12	145.020E-12	193.118E-12
49.0714E-3	-11.2452E-12	-10.7317E-12	134.547E-12	163.094E-12
49.4624E-3	-11.3453E-12	-10.8454E-12	129.758E-12	147.245E-12
49.8534E-3	-10.9241E-12	-10.7542E-12	121.861E-12	153.586E-12
50.2444E-3	-11.0737E-12	-10.6680E-12	156.098E-12	172.411E-12
50.6354E-3	-10.8147E-12	-10.7553E-12	147.416E-12	158.594E-12
51.0264E-3	-10.8395E-12	-10.5862E-12	154.272E-12	157.340E-12
51.4174E-3	-10.8751E-12	-10.5850E-12	153.924E-12	142.129E-12
51.8084E-3	-10.9554E-12	-10.6831E-12	151.002E-12	133.506E-12
52.1994E-3	-10.9432E-12	-10.3752E-12	163.131E-12	140.639E-12
52.5904E-3	-10.5560E-12	-10.2158E-12	143.690E-12	134.949E-12
52.9814E-3	-10.6087E-12	-10.2276E-12	174.887E-12	113.533E-12
53.3724E-3	-10.5902E-12	-10.1561E-12	150.523E-12	119.039E-12
53.7634E-3	-10.5026E-12	-10.3239E-12	156.914E-12	106.933E-12
54.1544E-3	-10.4086E-12	-10.1999E-12	153.685E-12	82.2723E-12
54.5455E-3	-10.3607E-12	-10.2228E-12	173.346E-12	80.4744E-12
54.9365E-3	-10.2318E-12	-10.1337E-12	157.361E-12	50.0472E-12
55.3275E-3	-10.1242E-12	-10.2097E-12	116.006E-12	47.1650E-12
55.7185E-3	-10.2327E-12	-10.0960E-12	142.696E-12	58.0807E-12
56.1095E-3	-10.2135E-12	-9.96685E-12	154.699E-12	55.2314E-12
56.5005E-3	-10.2295E-12	-10.1616E-12	135.305E-12	85.3401E-12
56.8915E-3	-9.97581E-12	-10.1299E-12	127.471E-12	98.8317E-12
57.2825E-3	-10.0355E-12	-10.0834E-12	141.025E-12	110.031E-12
57.6735E-3	-10.0487E-12	-9.96609E-12	142.209E-12	126.400E-12
58.0645E-3	-9.76944E-12	-9.90276E-12	134.613E-12	136.191E-12
58.4555E-3	-9.64184E-12	-9.92336E-12	141.632E-12	124.279E-12
58.8465E-3	-9.81541E-12	-9.78260E-12	123.806E-12	127.268E-12
59.2375E-3	-9.81693E-12	-9.59396E-12	115.517E-12	160.580E-12
59.6285E-3	-9.62753E-12	-9.62124E-12	108.079E-12	155.856E-12
60.0196E-3	-9.53941E-12	-9.48772E-12	111.970E-12	156.143E-12
60.4106E-3	-9.57489E-12	-9.57317E-12	109.535E-12	142.864E-12
60.8016E-3	-9.58366E-12	-9.64870E-12	72.5394E-12	145.823E-12
61.1926E-3	-9.66930E-12	-9.51290E-12	67.5058E-12	154.158E-12
61.5836E-3	-9.62296E-12	-9.31664E-12	104.058E-12	152.397E-12
61.9746E-3	-9.36317E-12	-9.30233E-12	108.055E-12	157.253E-12
62.3656E-3	-9.34963E-12	-9.21173E-12	80.9519E-12	159.873E-12
62.7566E-3	-9.34753E-12	-9.22661E-12	87.1129E-12	176.700E-12
63.1476E-3	-9.47952E-12	-9.12323E-12	86.2508E-12	170.344E-12
63.5386E-3	-9.41792E-12	-9.05132E-12	106.143E-12	197.466E-12
63.9296E-3	-9.17835E-12	-8.96015E-12	96.9658E-12	161.898E-12
64.3206E-3	-9.15222E-12	-8.80871E-12	101.220E-12	156.358E-12
64.7116E-3	-9.29890E-12	-8.89053E-12	92.5324E-12	165.235E-12
65.1026E-3	-9.16634E-12	-8.63438E-12	98.9936E-12	148.195E-12
65.4937E-3	-9.22356E-12	-8.82969E-12	103.106E-12	171.142E-12
65.8847E-3	-8.99544E-12	-8.54492E-12	111.038E-12	180.143E-12
66.2757E-3	-9.15890E-12	-8.76427E-12	121.156E-12	175.087E-12
66.6667E-3	-9.00326E-12	-8.56686E-12	108.397E-12	181.696E-12
67.0577E-3	-8.87814E-12	-8.42514E-12	131.300E-12	208.369E-12
67.4487E-3	-8.87089E-12	-8.49934E-12	158.551E-12	222.042E-12
67.8397E-3	-8.87623E-12	-8.21724E-12	162.519E-12	219.806E-12
68.2307E-3	-8.90732E-12	-8.05588E-12	188.603E-12	275.075E-12
68.6217E-3	-8.70781E-12	-8.12168E-12	175.526E-12	248.446E-12
69.0127E-3	-8.67176E-12	-8.02994E-12	218.659E-12	304.545E-12
69.4037E-3	-8.48007E-12	-7.71160E-12	215.236E-12	290.084E-12
69.7947E-3	-8.40244E-12	-7.78179E-12	236.963E-12	293.349E-12
70.1857E-3	-8.31928E-12	-7.66945E-12	246.337E-12	307.035E-12
70.5767E-3	-8.18367E-12	-7.33604E-12	263.557E-12	306.599E-12
70.9677E-3	-8.23021E-12	-7.46689E-12	276.879E-12	302.141E-12
71.3587E-3	-7.98817E-12	-7.09133E-12	276.362E-12	303.636E-12
71.7498E-3	-7.96204E-12	-7.11842E-12	296.001E-12	318.308E-12
72.1408E-3	-7.69958E-12	-6.98929E-12	293.453E-12	303.704E-12
72.5318E-3	-7.69577E-12	-6.91242E-12	288.214E-12	307.106E-12
72.9228E-3	-7.55730E-12	-6.65684E-12	309.876E-12	300.028E-12
73.3138E-3	-7.45258E-12	-6.61259E-12	322.818E-12	298.295E-12
73.7048E-3	-7.28950E-12	-6.64425E-12	338.598E-12	316.570E-12
74.0958E-3	-7.08771E-12	-6.32401E-12	299.545E-12	302.123E-12
74.4868E-3	-7.01046E-12	-6.19640E-12	320.263E-12	322.914E-12
74.8778E-3	-7.04765E-12	-6.22177E-12	301.934E-12	319.526E-12
75.2688E-3	-6.74095E-12	-6.12412E-12	320.514E-12	305.372E-12
75.6598E-3	-6.52695E-12	-5.81436E-12	310.762E-12	300.392E-12
76.0508E-3	-6.44436E-12	-5.75523E-12	297.876E-12	320.213E-12
76.4418E-3	-6.64520E-12	-5.58605E-12	316.928E-12	324.501E-12
76.8328E-3	-6.31924E-12	-5.43900E-12	303.358E-12	281.893E-12
77.2239E-3	-6.24390E-12	-5.38998E-12	310.189E-12	273.882E-12
77.6149E-3	-5.99976E-12	-5.45940E-12	276.922E-12	302.171E-12
78.0059E-3	-5.95093E-12	-5.22556E-12	253.205E-12	270.704E-12
78.3969E-3	-5.94597E-12	-4.95129E-12	219.732E-12	260.897E-12
78.7879E-3	-5.54790E-12	-4.90704E-12	231.310E-12	247.698E-12
79.1789E-3	-5.56202E-12	-5.02167E-12	240.913E-12	251.352E-12
79.5699E-3	-5.44720E-12	-4.90494E-12	202.685E-12	228.893E-12
79.9609E-3	-5.79395E-12	-4.53072E-12	207.178E-12	218.230E-12
80.3519E-3	-5.59711E-12	-4.72126E-12	187.492E-12	264.124E-12
80.7429E-3	-5.62096E-12	-4.46243E-12	198.507E-12	231.332E-12
81.1339E-3	-5.25455E-12	-4.52538E-12	232.335E-12	218.872E-12
81.5249E-3	-5.18665E-12	-4.27971E-12	215.121E-12	236.246E-12
81.9159E-3	-5.16891E-12	-4.37736E-12	248.495E-12	247.953E-12
82.3069E-3	-4.98791E-12	-4.37298E-12	258.776E-12	261.135E-12
82.6980E-3	-4.99840E-12	-3.84254E-12	285.708E-12	225.961E-12
83.0890E-3	-4.88281E-12	-3.99742E-12	304.024E-12	262.844E-12
83.4800E-3	-4.58508E-12	-3.90129E-12	309.389E-12	255.650E-12
83.8710E-3	-4.57649E-12	-3.72334E-12	290.312E-12	277.863E-12
84.2620E-3	-4.40178E-12	-3.72448E-12	303.068E-12	252.042E-12
84.6530E-3	-4.33578E-12	-3.46317E-12	297.345E-12	254.186E-12
85.0440E-3	-4.39091E-12	-3.56827E-12	284.086E-12	273.103E-12
85.4350E-3	-3.95699E-12	-3.35178E-12	304.954E-12	240.144E-12
85.8260E-3	-3.93810E-12	-3.20549E-12	266.046E-12	260.575E-12
86.2170E-3	-3.83015E-12	-3.04699E-12	260.360E-12	276.074E-12
86.6080E-3	-3.68156E-12	-3.12290E-12	274.815E-12	283.427E-12
86.9990E-3	-3.73974E-12	-3.13759E-12	279.492E-12	313.924E-12
87.3900E-3	-3.66364E-12	-2.81372E-12	298.174E-12	333.094E-12
87.7810E-3	-3.37410E-12	-2.69279E-12	316.945E-12	361.868E-12
88.1720E-3	-3.60909E-12	-2.64969E-12	314.924E-12	397.389E-12
88.5631E-3	-3.27396E-12	-2.39010E-12	343.694E-12	424.036E-12
88.9541E-3	-3.06644E-12	-2.21539E-12	366.937E-12	442.018E-12
89.3451E-3	-2.85950E-12	-1.99108E-12	398.634E-12	461.658E-12
89.7361E-3	-2.66495E-12	-1.71452E-12	402.250E-12	487.946E-12
90.1271E-3	-2.59590E-12	-1.69544E-12	427.013E-12	463.275E-12
90.5181E-3	-2.35462E-12	-1.28021E-12	414.334E-12	459.724E-12
90.9091E-3	-2.22893E-12	-1.10359E-12	455.553E-12	443.717E-12
91.3001E-3	-2.04964E-12	-990.295E-15	444.291E-12	431.491E-12
91.6911E-3	-1.73950E-12	-970.650E-15	444.695E-12	423.168E-12
92.0821E-3	-1.87817E-12	-683.594E-15	449.775E-12	392.778E-12
92.4731E-3	-1.52798E-12	-621.224E-15	440.880E-12	393.405E-12
92.8641E-3	-1.41830E-12	-468.254E-15	448.729E-12	409.336E-12
93.2551E-3	-1.14174E-12	-446.701E-15	435.333E-12	399.025E-12
93.6461E-3	-916.481E-15	-141.907E-15	421.027E-12	379.786E-12
94.0371E-3	-746.536E-15	64.8498E-15	407.016E-12	411.926E-12
94.4282E-3	-551.605E-15	48.8282E-15	387.203E-12	437.299E-12
94.8192E-3	-524.521E-15	394.058E-15	411.382E-12	401.446E-12
95.2102E-3	-367.546E-15	594.521E-15	387.065E-12	401.510E-12
95.6012E-3	-251.579E-15	806.999E-15	385.872E-12	415.602E-12
95.9922E-3	-207.710E-15	658.607E-15	374.745E-12	383.670E-12
96.3832E-3	-50.3541E-15	1.08166E-12	371.081E-12	345.779E-12
96.7742E-3	151.444E-15	1.31435E-12	360.794E-12	321.251E-12
97.1652E-3	423.431E-15	1.14880E-12	349.472E-12	317.129E-12
97.5562E-3	576.019E-15	1.27449E-12	350.970E-12	294.088E-12
97.9472E-3	699.615E-15	1.66626E-12	333.684E-12	274.522E-12
98.3382E-3	830.460E-15	1.44329E-12	331.127E-12	265.610E-12
98.7292E-3	951.195E-15	1.52035E-12	309.217E-12	297.502E-12
99.1202E-3	955.200E-15	1.64375E-12	314.177E-12	264.176E-12
99.5112E-3	1.02539E-12	1.79882E-12	285.333E-12	272.798E-12
99.9022E-3	1.14651E-12	2.03075E-12	305.533E-12	293.252E-12
100.293E-3	1.23539E-12	2.06718E-12	320.681E-12	299.758E-12
100.684E-3	1.46389E-12	2.19307E-12	334.152E-12	276.476E-12
101.075E-3	1.41754E-12	2.41852E-12	324.689E-12	353.731E-12
101.466E-3	1.77555E-12	2.40250E-12	325.558E-12	368.978E-12
101.857E-3	1.70689E-12	2.61116E-12	339.914E-12	378.682E-12
102.248E-3	2.17800E-12	2.60506E-12	330.062E-12	406.335E-12
102.639E-3	2.32925E-12	2.79427E-12	324.697E-12	411.451E-12
103.030E-3	2.40517E-12	2.85721E-12	365.000E-12	435.220E-12
103.421E-3	2.27509E-12	3.44963E-12	342.971E-12	451.423E-12
103.812E-3	2.35100E-12	3.57532E-12	379.031E-12	473.517E-12
104.203E-3	2.54345E-12	3.66859E-12	398.957E-12	461.709E-12
104.594E-3	2.59476E-12	3.96175E-12	422.349E-12	461.662E-12
104.985E-3	2.79160E-12	4.02679E-12	410.027E-12	482.393E-12
105.376E-3	3.40195E-12	4.16222E-12	421.838E-12	498.277E-12
105.767E-3	3.31421E-12	4.36039E-12	444.124E-12	496.099E-12
106.158E-3	3.61633E-12	4.72507E-12	455.543E-12	509.082E-12
106.549E-3	3.99761E-12	4.54292E-12	462.796E-12	570.623E-12
106.940E-3	3.94688E-12	4.83780E-12	464.703E-12	615.582E-12
107.331E-3	4.04129E-12	5.16396E-12	457.496E-12	657.791E-12
107.722E-3	4.12197E-12	5.57537E-12	454.724E-12	729.341E-12
108.113E-3	4.35257E-12	5.61066E-12	461.270E-12	771.756E-12
108.504E-3	4.40464E-12	6.21109E-12	507.803E-12	802.310E-12
108.895E-3	4.72584E-12	6.69441E-12	511.710E-12	816.559E-12
109.286E-3	5.06153E-12	6.90098E-12	563.801E-12	914.963E-12
109.677E-3	5.12638E-12	7.25269E-12	597.285E-12	940.102E-12
110.068E-3	5.36575E-12	7.70245E-12	627.455E-12	948.497E-12
110.459E-3	5.91297E-12	7.93781E-12	649.681E-12	957.178E-12
110.850E-3	6.09589E-12	8.20007E-12	698.247E-12	993.873E-12
111.241E-3	6.18553E-12	8.51498E-12	725.867E-12	986.346E-12
111.632E-3	6.81686E-12	9.33228E-12	758.467E-12	967.850E-12
112.023E-3	6.80122E-12	9.76410E-12	776.148E-12	991.229E-12
112.414E-3	7.04594E-12	10.0277E-12	840.275E-12	988.069E-12
112.805E-3	7.28130E-12	10.3842E-12	875.328E-12	986.116E-12
113.196E-3	7.96795E-12	10.7498E-12	885.961E-12	985.435E-12
113.587E-3	8.20370E-12	11.1717E-12	879.773E-12	970.690E-12
113.978E-3	8.74214E-12	11.3426E-12	907.721E-12	956.628E-12
114.370E-3	9.03149E-12	11.8168E-12	921.898E-12	911.751E-12
114.761E-3	9.57260E-12	12.1876E-12	934.167E-12	919.895E-12
115.152E-3	9.92908E-12	12.6736E-12	936.257E-12	899.538E-12
115.543E-3	10.2669E-12	12.9772E-12	947.657E-12	866.562E-12
115.934E-3	10.1530E-12	13.2168E-12	866.379E-12	866.943E-12
116.325E-3	10.5724E-12	13.5565E-12	840.718E-12	860.986E-12
116.716E-3	11.3466E-12	13.9420E-12	823.343E-12	881.154E-12
117.107E-3	11.4792E-12	14.4428E-12	791.916E-12	885.291E-12
117.498E-3	11.8881E-12	14.4823E-12	700.062E-12	897.239E-12
117.889E-3	12.3859E-12	14.6021E-12	700.116E-12	919.484E-12
118.280E-3	12.2301E-12	15.1512E-12	690.901E-12	968.568E-12
118.671E-3	12.3678E-12	15.6101E-12	754.155E-12	1.00576E-9
119.062E-3	12.9034E-12	16.0789E-12	768.096E-12	1.01964E-9
119.453E-3	13.0098E-12	16.5703E-12	766.497E-12	1.03957E-9
119.844E-3	12.7804E-12	16.9361E-12	858.160E-12	1.02776E-9
120.235E-3	13.4668E-12	17.4353E-12	903.588E-12	1.04175E-9
120.626E-3	13.9063E-12	17.9716E-12	987.886E-12	1.07955E-9
121.017E-3	14.6460E-12	18.3060E-12	1.04234E-9	1.05311E-9
121.408E-3	15.1379E-12	18.5495E-12	1.10282E-9	1.07510E-9
121.799E-3	15.5062E-12	18.9886E-12	1.11183E-9	1.09596E-9
122.190E-3	16.1253E-12	19.2408E-12	1.10856E-9	1.12639E-9
122.581E-3	16.4028E-12	19.5173E-12	1.15930E-9	1.17058E-9
122.972E-3	17.1488E-12	20.2814E-12	1.11824E-9	1.19556E-9
123.363E-3	17.0523E-12	20.6694E-12	1.13209E-9	1.27334E-9
123.754E-3	17.6329E-12	21.4083E-12	1.13609E-9	1.30397E-9
124.145E-3	18.1004E-12	21.9721E-12	1.13106E-9	1.37930E-9
124.536E-3	18.1913E-12	22.5283E-12	1.16347E-9	1.43773E-9
124.927E-3	18.8566E-12	23.0330E-12	1.20349E-9	1.50209E-9
125.318E-3	19.3647E-12	23.4257E-12	1.25095E-9	1.55259E-9
125.709E-3	20.1075E-12	24.3982E-12	1.19486E-9	1.58225E-9
126.100E-3	20.7932E-12	24.6265E-12	1.21773E-9	1.67936E-9
126.491E-3	20.9822E-12	25.4290E-12	1.21439E-9	1.68161E-9
126.882E-3	21.4882E-12	26.2386E-12	1.17881E-9	1.72865E-9
127.273E-3	22.2412E-12	26.9484E-12	1.20929E-9	1.81775E-9
127.664E-3	22.7051E-12	27.5839E-12	1.25184E-9	1.87610E-9
128.055E-3	22.5622E-12	28.4098E-12	1.36367E-9	1.91999E-9
128.446E-3	22.8262E-12	29.5151E-12	1.41030E-9	1.98117E-9
128.837E-3	23.6217E-12	29.8214E-12	1.46828E-9	2.14443E-9
129.228E-3	23.9338E-12	30.5504E-12	1.60955E-9	2.23901E-9
129.619E-3	24.7057E-12	31.7459E-12	1.75965E-9	2.29936E-9
130.010E-3	25.9577E-12	32.5123E-12	1.77557E-9	2.39555E-9
130.401E-3	27.3684E-12	33.1285E-12	1.85444E-9	2.54714E-9
130.792E-3	27.8427E-12	34.4801E-12	1.97670E-9	2.60053E-9
131.183E-3	28.2318E-12	36.0842E-12	2.12024E-9	2.58315E-9
131.574E-3	29.1023E-12	37.2665E-12	2.09405E-9	2.68303E-9
131.965E-3	30.3570E-12	37.9566E-12	2.19075E-9	2.72181E-9
132.356E-3	30.3808E-12	39.0007E-12	2.26176E-9	2.65831E-9
132.747E-3	31.1823E-12	40.5928E-12	2.29468E-9	2.61300E-9
133.138E-3	32.2237E-12	41.2764E-12	2.26836E-9	2.63576E-9
133.529E-3	34.0302E-12	41.6834E-12	2.33450E-9	2.67187E-9
133.920E-3	34.3338E-12	43.0178E-12	2.45208E-9	2.64182E-9
134.311E-3	35.6398E-12	44.2734E-12	2.50421E-9	2.65515E-9
134.702E-3	36.9240E-12	44.9196E-12	2.43000E-9	2.68575E-9
135.093E-3	37.9501E-12	45.5700E-12	2.52098E-9	2.72274E-9
135.484E-3	38.3005E-12	47.0030E-12	2.59674E-9	2.60415E-9
135.875E-3	39.0160E-12	49.0028E-12	2.61428E-9	2.56212E-9
136.266E-3	40.5012E-12	49.9867E-12	2.51475E-9	2.56276E-9
136.657E-3	41.7479E-12	50.8528E-12	2.59354E-9	2.44577E-9
137.048E-3	41.9977E-12	51.5177E-12	2.59323E-9	2.36403E-9
137.439E-3	43.2512E-12	52.7252E-12	2.60585E-9	2.28737E-9
137.830E-3	45.0878E-12	52.7737E-12	2.58266E-9	2.24414E-9
138.221E-3	46.2086E-12	53.2574E-12	2.56425E-9	2.24156E-9
138.612E-3	46.5431E-12	54.4210E-12	2.57701E-9	2.11893E-9
139.003E-3	47.5647E-12	55.2807E-12	2.55074E-9	2.04043E-9
139.394E-3	48.7095E-12	56.3917E-12	2.47147E-9	2.05956E-9
139.785E-3	49.8754E-12	56.9387E-12	2.47369E-9	2.09000E-9
140.176E-3	50.4488E-12	57.8980E-12	2.50528E-9	2.02365E-9
140.567E-3	50.8331E-12	59.6695E-12	2.44460E-9	1.96572E-9
140.958E-3	52.2503E-12	59.9911E-12	2.37937E-9	1.95358E-9
141.349E-3	53.7725E-12	59.7918E-12	2.42197E-9	1.97680E-9
141.740E-3	54.2480E-12	60.8147E-12	2.47198E-9	1.91080E-9
142.131E-3	54.8857E-12	61.8320E-12	2.46914E-9	1.79490E-9
142.522E-3	56.7648E-12	62.3383E-12	2.32982E-9	1.92743E-9
142.913E-3	57.6593E-12	62.2013E-12	2.31077E-9	2.03069E-9
143.304E-3	57.7339E-12	63.4037E-12	2.40254E-9	1.94240E-9
143.695E-3	58.6107E-12	65.3498E-12	2.20156E-9	2.02272E-9
144.086E-3	60.2947E-12	65.5764E-12	2.09463E-9	2.31463E-9
144.477E-3	61.3026E-12	65.4835E-12	2.04445E-9	2.46355E-9
144.868E-3	60.9114E-12	67.5468E-12	2.16816E-9	2.47407E-9
145.259E-3	61.7365E-12	69.1416E-12	2.10554E-9	2.61473E-9
145.650E-3	63.7218E-12	68.9749E-12	2.06083E-9	2.96847E-9
146.041E-3	63.2832E-12	69.5246E-12	2.24205E-9	3.14311E-9
146.432E-3	64.0970E-12	72.1397E-12	2.41591E-9	3.07872E-9
146.823E-3	64.5802E-12	73.9347E-12	2.45215E-9	3.27145E-9
147.214E-3	67.1000E-12	73.9954E-12	2.56203E-9	3.61451E-9
147.605E-3	68.0170E-12	75.2926E-12	2.83532E-9	3.58962E-9
147.996E-3	67.9687E-12	78.3590E-12	3.08065E-9	3.52244E-9
148.387E-3	69.8042E-12	80.2343E-12	3.09492E-9	3.70720E-9
148.778E-3	71.9555E-12	79.9393E-12	3.29752E-9	3.84066E-9
149.169E-3	72.7930E-12	81.3686E-12	3.43574E-9	3.75766E-9
149.560E-3	73.6971E-12	84.4753E-12	3.42385E-9	3.62538E-9
149.951E-3	75.3649E-12	85.3252E-12	3.39356E-9	3.80963E-9
150.342E-3	77.8948E-12	85.4937E-12	3.40088E-9	3.92352E-9
150.733E-3	78.6032E-12	87.4748E-12	3.50672E-9	3.81269E-9
151.124E-3	79.5298E-12	89.8403E-12	3.54252E-9	3.81306E-9
151.515E-3	81.4013E-12	91.4227E-12	3.53652E-9	3.90345E-9
151.906E-3	81.5899E-12	91.5306E-12	3.66608E-9	3.96163E-9
152.297E-3	83.7107E-12	93.9447E-12	3.83999E-9	3.73492E-9
152.688E-3	84.6136E-12	96.5744E-12	4.01398E-9	3.59323E-9
153.079E-3	86.1876E-12	97.7499E-12	4.07441E-9	3.50424E-9
153.470E-3	88.6927E-12	98.8062E-12	4.22234E-9	3.49104E-9
153.861E-3	90.3851E-12	99.3635E-12	4.22380E-9	3.34779E-9
154.252E-3	92.0690E-12	101.718E-12	4.23536E-9	3.19928E-9
154.643E-3	94.1956E-12	102.222E-12	4.32647E-9	3.17866E-9
155.034E-3	96.6644E-12	102.007E-12	3.99661E-9	3.09672E-9
155.425E-3	98.1651E-12	102.762E-12	4.01429E-9	2.99484E-9
155.816E-3	99.0784E-12	106.199E-12	4.02301E-9	2.90277E-9
156.207E-3	99.3771E-12	107.677E-12	3.89407E-9	2.78146E-9
156.598E-3	101.364E-12	108.029E-12	3.64433E-9	2.90332E-9
156.989E-3	103.102E-12	108.664E-12	3.60521E-9	2.66970E-9
157.380E-3	102.586E-12	110.623E-12	3.59029E-9	2.58898E-9
157.771E-3	105.362E-12	111.788E-12	3.32960E-9	2.62183E-9
158.162E-3	108.303E-12	111.607E-12	3.10717E-9	2.76794E-9
158.553E-3	109.827E-12	111.604E-12	3.05310E-9	2.71817E-9
158.944E-3	109.013E-12	114.254E-12	3.01099E-9	2.50304E-9
159.335E-3	110.789E-12	114.392E-12	2.74259E-9	2.59799E-9
159.726E-3	112.847E-12	114.780E-12	2.50961E-9	2.89445E-9
160.117E-3	112.267E-12	116.198E-12	2.69178E-9	2.80951E-9
160.508E-3	111.863E-12	119.500E-12	2.40217E-9	2.65525E-9
160.899E-3	113.503E-12	121.721E-12	2.14837E-9	2.91962E-9
161.290E-3	115.006E-12	119.557E-12	2.07648E-9	3.15244E-9
161.681E-3	115.584E-12	120.548E-12	2.22614E-9	3.00458E-9
162.072E-3	116.141E-12	124.047E-12	2.16637E-9	3.04239E-9
162.463E-3	119.023E-12	124.078E-12	2.15033E-9	3.13543E-9
162.854E-3	118.968E-12	123.110E-12	2.41591E-9	3.26412E-9
163.245E-3	118.868E-12	126.289E-12	2.60679E-9	3.00391E-9
163.636E-3	119.267E-12	129.119E-12	2.60497E-9	2.73398E-9
164.027E-3	120.323E-12	129.688E-12	2.69267E-9	3.01666E-9
164.418E-3	121.619E-12	129.992E-12	2.96028E-9	2.92259E-9
164.809E-3	123.215E-12	131.511E-12	2.90268E-9	2.45296E-9
165.200E-3	125.262E-12	134.118E-12	2.61644E-9	2.45325E-9
165.591E-3	126.667E-12	133.568E-12	2.74354E-9	2.66997E-9
165.982E-3	127.598E-12	132.274E-12	2.67220E-9	2.38343E-9
166.373E-3	128.963E-12	134.313E-12	2.39510E-9	2.25180E-9
166.764E-3	131.158E-12	135.727E-12	2.31774E-9	2.33803E-9
167.155E-3	129.908E-12	135.144E-12	2.30525E-9	2.54673E-9
167.546E-3	129.122E-12	136.704E-12	2.28285E-9	2.51847E-9
167.937E-3	130.946E-12	139.741E-12	2.16285E-9	2.55595E-9
168.328E-3	131.284E-12	140.170E-12	2.29612E-9	2.78145E-9
168.719E-3	130.726E-12	141.021E-12	2.56057E-9	3.04525E-9
169.110E-3	133.338E-12	141.738E-12	2.57050E-9	2.90974E-9
169.501E-3	135.980E-12	143.588E-12	2.36624E-9	2.95508E-9
169.892E-3	137.601E-12	143.812E-12	2.69762E-9	3.09631E-9
170.283E-3	137.596E-12	145.649E-12	2.77410E-9	2.98988E-9
170.674E-3	139.232E-12	146.682E-12	2.49563E-9	2.87520E-9
171.065E-3	141.276E-12	148.260E-12	2.37385E-9	2.97412E-9
171.457E-3	140.730E-12	148.769E-12	2.51912E-9	2.88862E-9
171.848E-3	139.277E-12	150.589E-12	2.44224E-9	2.89806E-9
172.239E-3	141.757E-12	151.682E-12	2.32808E-9	2.79631E-9
172.630E-3	142.692E-12	152.257E-12	2.37986E-9	2.93885E-9
173.021E-3	142.691E-12	153.798E-12	2.66495E-9	2.78859E-9
173.412E-3	143.386E-12	155.034E-12	2.77931E-9	2.68048E-9
173.803E-3	146.288E-12	154.990E-12	2.87309E-9	2.73458E-9
174.194E-3	148.598E-12	156.347E-12	2.96001E-9	2.70154E-9
174.585E-3	149.135E-12	157.486E-12	3.13914E-9	2.45985E-9
174.976E-3	149.910E-12	159.720E-12	3.03116E-9	2.52165E-9
175.367E-3	151.619E-12	159.979E-12	2.94031E-9	2.57427E-9
175.758E-3	152.839E-12	160.073E-12	2.92561E-9	2.37005E-9
176.149E-3	154.071E-12	162.466E-12	2.88875E-9	2.29645E-9
176.540E-3	153.454E-12	162.644E-12	2.83848E-9	2.46313E-9
176.931E-3	154.572E-12	162.082E-12	2.83520E-9	2.41025E-9
177.322E-3	156.594E-12	164.393E-12	2.64660E-9	2.28181E-9
177.713E-3	157.186E-12	165.864E-12	2.61340E-9	2.32174E-9
178.104E-3	158.166E-12	165.392E-12	2.74083E-9	2.50513E-9
178.495E-3	159.672E-12	166.298E-12	2.74161E-9	2.65885E-9
178.886E-3	162.323E-12	168.628E-12	2.60229E-9	2.52998E-9
179.277E-3	163.739E-12	169.460E-12	2.77690E-9	2.84494E-9
179.668E-3	161.466E-12	169.143E-12	2.78046E-9	3.05537E-9
180.059E-3	162.196E-12	171.531E-12	2.58308E-9	2.73767E-9
180.450E-3	165.528E-12	173.114E-12	2.32453E-9	2.53270E-9
180.841E-3	166.471E-12	174.258E-12	2.35732E-9	2.60169E-9
181.232E-3	166.123E-12	174.357E-12	2.36921E-9	2.27708E-9
181.623E-3	168.118E-12	177.291E-12	1.97777E-9	1.92338E-9
182.014E-3	169.761E-12	178.373E-12	1.44230E-9	1.81406E-9
182.405E-3	169.668E-12	176.682E-12	1.70143E-9	1.89602E-9
182.796E-3	167.960E-12	176.250E-12	1.66091E-9	1.62232E-9
183.187E-3	170.445E-12	177.886E-12	1.13614E-9	1.60802E-9
183.578E-3	172.608E-12	177.034E-12	1.09372E-9	1.81997E-9
183.969E-3	170.954E-12	177.602E-12	1.49422E-9	2.19094E-9
184.360E-3	167.424E-12	179.280E-12	1.63671E-9	1.91913E-9
184.751E-3	170.722E-12	181.598E-12	1.50617E-9	2.04150E-9
185.142E-3	173.166E-12	181.618E-12	1.56536E-9	2.57534E-9
185.533E-3	171.681E-12	182.906E-12	2.04283E-9	2.67564E-9
185.924E-3	172.915E-12	185.294E-12	2.00838E-9	2.49173E-9
186.315E-3	177.035E-12	187.558E-12	1.67604E-9	2.73109E-9
186.706E-3	178.873E-12	184.921E-12	1.80037E-9	2.86459E-9
187.097E-3	176.531E-12	185.624E-12	2.19629E-9	2.52639E-9
187.488E-3	175.487E-12	188.971E-12	1.97493E-9	2.24032E-9
187.879E-3	178.511E-12	189.225E-12	1.57787E-9	2.43797E-9
188.270E-3	179.572E-12	188.946E-12	1.81000E-9	2.72558E-9
188.661E-3	177.166E-12	191.552E-12	2.11676E-9	2.59791E-9
189.052E-3	177.773E-12	194.095E-12	2.06854E-9	2.40737E-9
189.443E-3	180.878E-12	192.130E-12	2.06826E-9	2.94363E-9
189.834E-3	182.922E-12	191.757E-12	2.54939E-9	3.12253E-9
190.225E-3	181.085E-12	194.683E-12	3.10780E-9	2.74025E-9
190.616E-3	182.826E-12	199.006E-12	3.17848E-9	2.95927E-9
191.007E-3	187.181E-12	198.630E-12	3.23536E-9	3.24363E-9
191.398E-3	188.300E-12	197.521E-12	3.59555E-9	3.18722E-9
191.789E-3	187.083E-12	200.706E-12	3.84967E-9	2.99182E-9
192.180E-3	188.354E-12	203.058E-12	4.00833E-9	3.02929E-9
192.571E-3	192.416E-12	201.272E-12	3.80766E-9	2.94077E-9
192.962E-3	194.203E-12	203.716E-12	4.09823E-9	2.75131E-9
193.353E-3	193.891E-12	206.444E-12	4.30701E-9	2.15390E-9
193.744E-3	195.017E-12	207.730E-12	4.11694E-9	2.03306E-9
194.135E-3	198.492E-12	207.193E-12	3.97290E-9	2.35058E-9
194.526E-3	202.284E-12	206.202E-12	4.08766E-9	2.22538E-9
194.917E-3	200.480E-12	206.860E-12	4.39420E-9	2.04505E-9
195.308E-3	201.885E-12	209.448E-12	4.17357E-9	2.36155E-9
195.699E-3	206.080E-12	207.923E-12	3.62986E-9	2.60818E-9
196.090E-3	207.217E-12	207.850E-12	3.70877E-9	2.87706E-9
196.481E-3	206.026E-12	212.391E-12	3.83038E-9	2.69307E-9
196.872E-3	207.106E-12	214.590E-12	3.39445E-9	2.51526E-9
197.263E-3	212.967E-12	214.076E-12	2.81390E-9	2.65623E-9
197.654E-3	214.134E-12	215.289E-12	2.97321E-9	2.31727E-9
198.045E-3	209.826E-12	219.101E-12	2.84597E-9	1.74761E-9
198.436E-3	212.219E-12	221.726E-12	2.18516E-9	1.73815E-9
198.827E-3	216.372E-12	217.850E-12	1.86611E-9	1.09458E-9
199.218E-3	215.711E-12	214.772E-12	2.15008E-9	-33.7000E-12
199.609E-3	213.828E-12	217.131E-12	2.17646E-9	-318.531E-12
200.000E-3	215.878E-12	216.673E-12	1.30221E-9	-111.968E-12
